svm_type c_svc
kernel_type rbf
gamma 0.707107
nr_class 2
total_sv 273
rho -0.225016
label 1 -1
nr_sv 134 139
SV
0.2913358604014584 521:0.31622777 564:0.31622777 755:0.31622777 756:0.31622777 1193:0.31622777 2028:0.31622777 2053:0.31622777 2054:0.31622777 2055:0.31622777 2070:0.31622777 
0.4014648956854972 453:0.31622777 479:0.31622777 541:0.31622777 553:0.31622777 572:0.31622777 588:0.31622777 610:0.31622777 618:0.31622777 2016:0.31622777 2062:0.31622777 
0.2582855432867179 402:0.24253563 411:0.24253563 491:0.48507125 510:0.48507125 573:0.24253563 603:0.24253563 2057:0.24253563 2120:0.48507125 
0.3561730151365879 669:1 
0.3850015076992915 10:0.12038585 48:0.12038585 59:0.12038585 412:0.12038585 414:0.12038585 428:0.12038585 429:0.12038585 436:0.12038585 444:0.12038585 449:0.12038585 451:0.12038585 454:0.12038585 459:0.12038585 472:0.12038585 477:0.12038585 480:0.12038585 493:0.24077171 513:0.12038585 524:0.12038585 531:0.12038585 542:0.12038585 554:0.12038585 559:0.12038585 565:0.12038585 583:0.12038585 585:0.24077171 586:0.12038585 592:0.12038585 593:0.12038585 601:0.12038585 607:0.12038585 636:0.12038585 644:0.12038585 837:0.12038585 844:0.12038585 845:0.12038585 2001:0.24077171 2004:0.24077171 2017:0.12038585 2025:0.12038585 2030:0.24077171 2045:0.12038585 2046:0.12038585 2048:0.36115756 2058:0.12038585 2060:0.12038585 
0.2318721952007034 56:0.40824829 413:0.40824829 433:0.40824829 437:0.40824829 575:0.40824829 613:0.40824829 
0.02138020578689685 142:1 
0.1431607359917684 10:0.13363062 146:0.13363062 389:0.26726124 426:0.13363062 431:0.13363062 461:0.13363062 462:0.13363062 464:0.13363062 468:0.13363062 470:0.13363062 474:0.26726124 475:0.13363062 476:0.13363062 500:0.13363062 523:0.13363062 535:0.13363062 537:0.13363062 546:0.40089186 550:0.13363062 556:0.26726124 557:0.13363062 561:0.13363062 568:0.13363062 571:0.13363062 574:0.13363062 581:0.13363062 604:0.13363062 612:0.13363062 616:0.13363062 624:0.13363062 632:0.26726124 634:0.13363062 638:0.13363062 648:0.13363062 670:0.13363062 843:0.13363062 
0.5611626516455304 2:0.18898224 42:0.18898224 152:0.18898224 389:0.18898224 435:0.18898224 441:0.18898224 455:0.18898224 456:0.18898224 458:0.18898224 481:0.18898224 487:0.18898224 489:0.18898224 511:0.18898224 549:0.18898224 551:0.18898224 570:0.18898224 579:0.18898224 589:0.18898224 594:0.18898224 600:0.18898224 611:0.18898224 623:0.18898224 631:0.18898224 753:0.18898224 831:0.18898224 835:0.18898224 842:0.18898224 1186:0.18898224 
0.2857250583623696 56:0.35355339 148:0.35355339 396:0.35355339 519:0.35355339 528:0.35355339 562:0.35355339 646:0.35355339 2023:0.35355339 
0.4059567806847012 42:0.14586499 141:0.14586499 399:0.14586499 400:0.29172998 417:0.14586499 425:0.14586499 434:0.14586499 447:0.29172998 450:0.14586499 457:0.14586499 467:0.14586499 482:0.14586499 484:0.14586499 486:0.14586499 499:0.14586499 501:0.29172998 502:0.29172998 515:0.29172998 529:0.14586499 538:0.14586499 539:0.14586499 543:0.14586499 547:0.14586499 558:0.14586499 637:0.14586499 641:0.14586499 649:0.14586499 834:0.14586499 836:0.14586499 840:0.14586499 2029:0.14586499 2052:0.14586499 
0.707106781187 521:0.31622777 564:0.31622777 755:0.31622777 756:0.31622777 1193:0.31622777 2028:0.31622777 2053:0.31622777 2054:0.31622777 2055:0.31622777 2070:0.31622777 
0.1238323754168766 52:0.28867513 53:0.28867513 54:0.28867513 406:0.28867513 423:0.28867513 471:0.28867513 497:0.28867513 530:0.28867513 545:0.28867513 566:0.28867513 605:0.28867513 1185:0.28867513 
0.3960288060939138 416:0.4472136 490:0.4472136 569:0.4472136 591:0.4472136 2023:0.4472136 
0.3374498373105746 438:0.25 478:0.25 505:0.5 552:0.5 596:0.25 606:0.25 626:0.25 630:0.25 846:0.25 2002:0.25 
0.2451232138114616 41:0.20412415 49:0.20412415 407:0.20412415 430:0.40824829 442:0.20412415 452:0.20412415 483:0.20412415 485:0.20412415 506:0.20412415 512:0.20412415 534:0.20412415 540:0.20412415 629:0.40824829 643:0.40824829 2026:0.20412415 
0.04138884191602018 25:0.20412415 50:0.20412415 58:0.20412415 149:0.20412415 153:0.20412415 154:0.20412415 439:0.20412415 445:0.20412415 448:0.20412415 494:0.20412415 509:0.20412415 525:0.20412415 563:0.20412415 595:0.20412415 608:0.20412415 620:0.20412415 625:0.20412415 639:0.20412415 642:0.40824829 669:0.20412415 2056:0.20412415 
0.707106781187 453:0.31622777 479:0.31622777 541:0.31622777 553:0.31622777 572:0.31622777 588:0.31622777 610:0.31622777 618:0.31622777 2016:0.31622777 2062:0.31622777 
0.6950758622531424 402:0.24253563 411:0.24253563 491:0.48507125 510:0.48507125 573:0.24253563 603:0.24253563 2057:0.24253563 2120:0.48507125 
0.69534945974309 669:1 
0.3428934363602787 78:0.37796447 147:0.37796447 398:0.37796447 404:0.37796447 410:0.37796447 415:0.37796447 846:0.37796447 
0.6768581043275254 10:0.12038585 48:0.12038585 59:0.12038585 412:0.12038585 414:0.12038585 428:0.12038585 429:0.12038585 436:0.12038585 444:0.12038585 449:0.12038585 451:0.12038585 454:0.12038585 459:0.12038585 472:0.12038585 477:0.12038585 480:0.12038585 493:0.24077171 513:0.12038585 524:0.12038585 531:0.12038585 542:0.12038585 554:0.12038585 559:0.12038585 565:0.12038585 583:0.12038585 585:0.24077171 586:0.12038585 592:0.12038585 593:0.12038585 601:0.12038585 607:0.12038585 636:0.12038585 644:0.12038585 837:0.12038585 844:0.12038585 845:0.12038585 2001:0.24077171 2004:0.24077171 2017:0.12038585 2025:0.12038585 2030:0.24077171 2045:0.12038585 2046:0.12038585 2048:0.36115756 2058:0.12038585 2060:0.12038585 
0.707106781187 56:0.40824829 413:0.40824829 433:0.40824829 437:0.40824829 575:0.40824829 613:0.40824829 
0.7016339705398315 142:1 
0.6552622004418014 149:0.31622777 153:0.31622777 154:0.31622777 488:0.31622777 514:0.31622777 1193:0.63245553 2015:0.31622777 
0.707106781187 10:0.13363062 146:0.13363062 389:0.26726124 426:0.13363062 431:0.13363062 461:0.13363062 462:0.13363062 464:0.13363062 468:0.13363062 470:0.13363062 474:0.26726124 475:0.13363062 476:0.13363062 500:0.13363062 523:0.13363062 535:0.13363062 537:0.13363062 546:0.40089186 550:0.13363062 556:0.26726124 557:0.13363062 561:0.13363062 568:0.13363062 571:0.13363062 574:0.13363062 581:0.13363062 604:0.13363062 612:0.13363062 616:0.13363062 624:0.13363062 632:0.26726124 634:0.13363062 638:0.13363062 648:0.13363062 670:0.13363062 843:0.13363062 
0.700224094293405 2:0.18898224 42:0.18898224 152:0.18898224 389:0.18898224 435:0.18898224 441:0.18898224 455:0.18898224 456:0.18898224 458:0.18898224 481:0.18898224 487:0.18898224 489:0.18898224 511:0.18898224 549:0.18898224 551:0.18898224 570:0.18898224 579:0.18898224 589:0.18898224 594:0.18898224 600:0.18898224 611:0.18898224 623:0.18898224 631:0.18898224 753:0.18898224 831:0.18898224 835:0.18898224 842:0.18898224 1186:0.18898224 
0.6806719121276366 56:0.35355339 148:0.35355339 396:0.35355339 519:0.35355339 528:0.35355339 562:0.35355339 646:0.35355339 2023:0.35355339 
0.707106781187 42:0.14586499 141:0.14586499 399:0.14586499 400:0.29172998 417:0.14586499 425:0.14586499 434:0.14586499 447:0.29172998 450:0.14586499 457:0.14586499 467:0.14586499 482:0.14586499 484:0.14586499 486:0.14586499 499:0.14586499 501:0.29172998 502:0.29172998 515:0.29172998 529:0.14586499 538:0.14586499 539:0.14586499 543:0.14586499 547:0.14586499 558:0.14586499 637:0.14586499 641:0.14586499 649:0.14586499 834:0.14586499 836:0.14586499 840:0.14586499 2029:0.14586499 2052:0.14586499 
0.707106781187 521:0.31622777 564:0.31622777 755:0.31622777 756:0.31622777 1193:0.31622777 2028:0.31622777 2053:0.31622777 2054:0.31622777 2055:0.31622777 2070:0.31622777 
0.6763880602559695 4:0.12598816 45:0.12598816 46:0.75592895 52:0.12598816 53:0.12598816 54:0.12598816 59:0.12598816 152:0.12598816 401:0.12598816 405:0.25197632 432:0.12598816 516:0.12598816 548:0.12598816 555:0.12598816 582:0.12598816 617:0.12598816 640:0.25197632 833:0.25197632 838:0.12598816 
0.707106781187 52:0.28867513 53:0.28867513 54:0.28867513 406:0.28867513 423:0.28867513 471:0.28867513 497:0.28867513 530:0.28867513 545:0.28867513 566:0.28867513 605:0.28867513 1185:0.28867513 
0.7055818837980544 46:0.30151134 48:0.30151134 72:0.30151134 144:0.30151134 391:0.30151134 423:0.30151134 446:0.30151134 460:0.30151134 526:0.30151134 560:0.30151134 578:0.30151134 
0.6999305468642255 416:0.4472136 490:0.4472136 569:0.4472136 591:0.4472136 2023:0.4472136 
0.4658545231208393 14:0.20851441 16:0.41702883 18:0.62554324 19:0.20851441 20:0.20851441 30:0.20851441 140:0.20851441 440:0.20851441 492:0.20851441 496:0.20851441 577:0.20851441 622:0.20851441 
0.1054319903966616 14:0.23570226 16:0.47140452 18:0.70710678 19:0.23570226 20:0.23570226 30:0.23570226 517:0.23570226 
0.312144847940682 14:0.22941573 16:0.45883147 18:0.6882472 19:0.22941573 20:0.22941573 30:0.22941573 584:0.22941573 635:0.22941573 
0.350915601235123 14:0.21821789 16:0.43643578 18:0.65465367 19:0.21821789 20:0.21821789 30:0.21821789 45:0.21821789 390:0.21821789 508:0.21821789 598:0.21821789 
0.7054284161963108 438:0.25 478:0.25 505:0.5 552:0.5 596:0.25 606:0.25 626:0.25 630:0.25 846:0.25 2002:0.25 
0.7041903359861444 41:0.20412415 49:0.20412415 407:0.20412415 430:0.40824829 442:0.20412415 452:0.20412415 483:0.20412415 485:0.20412415 506:0.20412415 512:0.20412415 534:0.20412415 540:0.20412415 629:0.40824829 643:0.40824829 2026:0.20412415 
0.7053493336775872 8:0.20851441 21:0.20851441 25:0.20851441 149:0.20851441 151:0.20851441 153:0.20851441 154:0.20851441 443:0.20851441 498:0.20851441 507:0.20851441 518:0.20851441 520:0.20851441 527:0.20851441 544:0.20851441 567:0.20851441 614:0.20851441 619:0.20851441 627:0.20851441 633:0.20851441 645:0.20851441 841:0.20851441 2051:0.20851441 2061:0.20851441 
0.707106781187 25:0.20412415 50:0.20412415 58:0.20412415 149:0.20412415 153:0.20412415 154:0.20412415 439:0.20412415 445:0.20412415 448:0.20412415 494:0.20412415 509:0.20412415 525:0.20412415 563:0.20412415 595:0.20412415 608:0.20412415 620:0.20412415 625:0.20412415 639:0.20412415 642:0.40824829 669:0.20412415 2056:0.20412415 
0.6053608163865315 21:0.20412415 25:0.20412415 50:0.20412415 73:0.20412415 149:0.20412415 151:0.20412415 153:0.20412415 154:0.20412415 393:0.20412415 463:0.20412415 469:0.20412415 473:0.20412415 495:0.20412415 532:0.40824829 536:0.20412415 590:0.20412415 599:0.20412415 621:0.20412415 647:0.20412415 2050:0.20412415 2063:0.20412415 
0.707106781187 42:0.1767767 667:0.35355339 740:0.1767767 829:0.1767767 830:0.1767767 1207:0.1767767 1231:0.1767767 1265:0.1767767 1279:0.1767767 1281:0.1767767 1450:0.1767767 1593:0.1767767 1599:0.1767767 1643:0.1767767 1664:0.1767767 1881:0.1767767 1963:0.1767767 1996:0.53033009 2038:0.1767767 2069:0.1767767 2071:0.1767767 
0.707106781187 16:0.18898224 423:0.18898224 425:0.56694671 587:0.18898224 677:0.18898224 733:0.18898224 765:0.18898224 776:0.18898224 1222:0.18898224 1540:0.18898224 1612:0.18898224 1633:0.18898224 1662:0.18898224 1684:0.18898224 1698:0.18898224 1745:0.18898224 1888:0.18898224 1953:0.18898224 1956:0.18898224 1992:0.18898224 
0.707106781187 402:0.70710678 1793:0.70710678 
0.707106781187 48:0.62469505 427:0.15617376 671:0.15617376 677:0.15617376 701:0.15617376 804:0.15617376 1248:0.15617376 1252:0.15617376 1257:0.15617376 1294:0.15617376 1345:0.15617376 1402:0.15617376 1428:0.15617376 1461:0.15617376 1471:0.15617376 1586:0.15617376 1644:0.15617376 1701:0.15617376 1758:0.15617376 1790:0.15617376 1944:0.15617376 1964:0.15617376 2017:0.15617376 2041:0.15617376 2051:0.15617376 2066:0.15617376 
0.707106781187 817:0.57735027 1671:0.57735027 2027:0.57735027 
0.707106781187 52:0.18569534 53:0.18569534 54:0.18569534 138:0.18569534 661:0.18569534 692:0.18569534 743:0.37139068 784:0.37139068 817:0.18569534 1217:0.18569534 1439:0.18569534 1573:0.18569534 1627:0.18569534 1741:0.18569534 1746:0.18569534 1776:0.18569534 1861:0.18569534 1894:0.18569534 1932:0.18569534 1942:0.18569534 2069:0.18569534 2081:0.18569534 2111:0.18569534 
0.707106781187 52:0.40824829 53:0.40824829 54:0.40824829 848:0.40824829 1186:0.40824829 1304:0.40824829 
0.707106781187 72:0.13736056 145:0.27472113 390:0.13736056 684:0.13736056 686:0.27472113 688:0.13736056 700:0.27472113 782:0.13736056 822:0.27472113 1197:0.27472113 1256:0.13736056 1277:0.13736056 1297:0.13736056 1374:0.13736056 1426:0.13736056 1481:0.13736056 1487:0.13736056 1562:0.13736056 1565:0.27472113 1575:0.13736056 1580:0.13736056 1592:0.13736056 1659:0.13736056 1669:0.13736056 1673:0.13736056 1737:0.13736056 1800:0.13736056 1892:0.13736056 2046:0.13736056 2098:0.13736056 2112:0.27472113 2120:0.13736056 
0.707106781187 419:0.22941573 736:0.22941573 1188:0.45883147 1225:0.22941573 1509:0.22941573 1519:0.22941573 1583:0.22941573 1587:0.22941573 1663:0.22941573 1682:0.22941573 1808:0.22941573 1826:0.22941573 1871:0.22941573 2006:0.22941573 2039:0.22941573 2043:0.22941573 
0.6498942260997163 66:0.25819889 149:0.25819889 153:0.25819889 154:0.25819889 775:0.25819889 815:0.25819889 1319:0.25819889 1400:0.25819889 1407:0.25819889 1511:0.25819889 1705:0.25819889 1794:0.25819889 1978:0.25819889 1998:0.25819889 2044:0.25819889 
0.707106781187 1436:0.57735027 1784:0.57735027 2120:0.57735027 
0.707106781187 73:0.16903085 148:0.16903085 670:0.16903085 686:0.16903085 777:0.16903085 794:0.16903085 816:0.16903085 826:0.16903085 847:0.16903085 1218:0.16903085 1253:0.16903085 1259:0.16903085 1293:0.16903085 1316:0.16903085 1326:0.16903085 1383:0.16903085 1403:0.16903085 1410:0.16903085 1420:0.16903085 1432:0.16903085 1441:0.16903085 1442:0.16903085 1460:0.16903085 1513:0.16903085 1570:0.16903085 1690:0.16903085 1692:0.16903085 1768:0.16903085 1810:0.16903085 1847:0.16903085 2002:0.16903085 2005:0.16903085 2011:0.16903085 2023:0.16903085 2088:0.16903085 
0.707106781187 7:0.53452248 684:0.26726124 734:0.26726124 1267:0.26726124 1454:0.26726124 1544:0.53452248 1831:0.26726124 2023:0.26726124 
0.707106781187 46:0.18257419 49:0.18257419 80:0.18257419 389:0.18257419 418:0.18257419 587:0.18257419 669:0.18257419 673:0.18257419 780:0.18257419 1330:0.18257419 1348:0.36514837 1386:0.18257419 1502:0.18257419 1560:0.18257419 1601:0.18257419 1646:0.18257419 1844:0.18257419 2004:0.36514837 2030:0.18257419 2033:0.18257419 2085:0.36514837 
0.707106781187 753:0.70710678 2065:0.70710678 
0.707106781187 4:0.21821789 11:0.21821789 41:0.10910895 50:0.10910895 59:0.32732684 67:0.10910895 150:0.10910895 466:0.10910895 655:0.10910895 662:0.10910895 691:0.21821789 700:0.21821789 767:0.10910895 804:0.21821789 808:0.10910895 813:0.10910895 823:0.10910895 1223:0.10910895 1263:0.10910895 1341:0.21821789 1369:0.10910895 1394:0.10910895 1475:0.10910895 1484:0.10910895 1532:0.21821789 1569:0.21821789 1579:0.10910895 1653:0.10910895 1696:0.10910895 1890:0.10910895 1954:0.10910895 1958:0.10910895 2024:0.10910895 2049:0.43643578 2063:0.10910895 2084:0.10910895 2091:0.10910895 
0.707106781187 745:1 
0.707106781187 78:0.37796447 147:0.37796447 398:0.37796447 404:0.37796447 410:0.37796447 415:0.37796447 846:0.37796447 
0.707106781187 762:0.35355339 1331:0.35355339 1339:0.35355339 1463:0.35355339 1464:0.35355339 1661:0.35355339 1994:0.35355339 2027:0.35355339 
0.707106781187 43:0.11043153 55:0.11043153 68:0.22086305 138:0.11043153 149:0.11043153 153:0.11043153 154:0.11043153 393:0.11043153 395:0.11043153 397:0.11043153 674:0.11043153 751:0.11043153 763:0.11043153 805:0.11043153 809:0.22086305 818:0.11043153 829:0.11043153 1233:0.11043153 1307:0.22086305 1321:0.11043153 1333:0.11043153 1373:0.11043153 1389:0.11043153 1392:0.11043153 1405:0.11043153 1424:0.11043153 1435:0.11043153 1462:0.11043153 1468:0.11043153 1483:0.11043153 1488:0.11043153 1506:0.11043153 1545:0.11043153 1547:0.33129458 1571:0.11043153 1647:0.11043153 1660:0.22086305 1666:0.11043153 1717:0.11043153 1733:0.11043153 1749:0.11043153 1761:0.11043153 1764:0.22086305 1812:0.11043153 1828:0.11043153 1902:0.11043153 1947:0.11043153 1994:0.11043153 2040:0.22086305 2045:0.11043153 2078:0.22086305 2114:0.11043153 2119:0.11043153 
0.707106781187 683:0.28867513 756:0.28867513 1216:0.28867513 1385:0.28867513 1457:0.28867513 1591:0.28867513 1704:0.28867513 1840:0.28867513 1887:0.28867513 1994:0.28867513 2031:0.28867513 2083:0.28867513 
0.707106781187 2:0.43643578 3:0.43643578 5:0.43643578 6:0.43643578 7:0.43643578 1916:0.21821789 
0.707106781187 2:0.43643578 5:0.43643578 6:0.43643578 1379:0.21821789 2022:0.43643578 2089:0.43643578 
0.707106781187 2:0.4472136 3:0.4472136 5:0.4472136 6:0.4472136 7:0.4472136 
0.707106781187 1243:0.31622777 1395:0.31622777 1525:0.31622777 1543:0.31622777 1620:0.31622777 1841:0.31622777 2004:0.63245553 
0.707106781187 4:0.40824829 8:0.40824829 9:0.40824829 748:0.40824829 1315:0.40824829 1835:0.40824829 
0.707106781187 2:0.25 3:0.25 5:0.25 6:0.25 7:0.25 13:0.25 1527:0.5 1750:0.25 2013:0.25 2028:0.5 
0.707106781187 414:0.13608276 615:0.27216553 656:0.13608276 672:0.27216553 765:0.13608276 786:0.13608276 827:0.13608276 1194:0.13608276 1196:0.13608276 1199:0.13608276 1219:0.13608276 1228:0.40824829 1312:0.27216553 1431:0.13608276 1458:0.13608276 1630:0.13608276 1677:0.27216553 1689:0.13608276 1707:0.13608276 1711:0.13608276 1766:0.13608276 1875:0.13608276 1908:0.27216553 1940:0.13608276 1943:0.13608276 1951:0.27216553 1982:0.13608276 2073:0.13608276 
0.707106781187 2:0.39223227 3:0.39223227 5:0.39223227 6:0.39223227 7:0.39223227 13:0.19611614 17:0.19611614 23:0.19611614 422:0.19611614 1603:0.19611614 2012:0.19611614 
0.707106781187 1205:0.81649658 1417:0.40824829 1728:0.40824829 
0.707106781187 4:0.20412415 408:0.20412415 673:0.20412415 808:0.20412415 1229:0.20412415 1250:0.20412415 1434:0.20412415 1608:0.20412415 1635:0.40824829 1693:0.20412415 1718:0.20412415 1839:0.20412415 1910:0.20412415 1911:0.20412415 1987:0.20412415 2009:0.20412415 2029:0.20412415 2044:0.40824829 
0.707106781187 2:0.33333333 3:0.33333333 5:0.33333333 6:0.33333333 7:0.33333333 65:0.33333333 1414:0.33333333 1515:0.33333333 1969:0.33333333 
0.6082683511333642 4:0.32444284 8:0.16222142 9:0.32444284 59:0.16222142 140:0.16222142 787:0.16222142 803:0.16222142 830:0.16222142 1195:0.32444284 1227:0.16222142 1271:0.16222142 1292:0.16222142 1337:0.16222142 1362:0.16222142 1504:0.16222142 1536:0.16222142 1548:0.16222142 1553:0.16222142 1631:0.16222142 1641:0.16222142 1694:0.16222142 1734:0.16222142 1845:0.16222142 1877:0.16222142 1885:0.16222142 1899:0.16222142 1980:0.16222142 2037:0.16222142 2041:0.16222142 
0.707106781187 1360:0.5 1452:0.5 1927:0.5 2008:0.5 
0.707106781187 803:0.4472136 1249:0.4472136 1283:0.4472136 1818:0.4472136 1921:0.4472136 
0.2017053532171116 4:0.57735027 8:0.57735027 9:0.57735027 
0.707106781187 59:0.37139068 522:0.18569534 699:0.37139068 701:0.37139068 749:0.18569534 776:0.37139068 1314:0.37139068 1401:0.18569534 1445:0.18569534 1472:0.18569534 1514:0.18569534 1645:0.18569534 1779:0.18569534 2039:0.18569534 
0.707106781187 686:0.2773501 756:0.2773501 779:0.2773501 795:0.2773501 801:0.2773501 1346:0.2773501 1419:0.2773501 1688:0.2773501 1722:0.2773501 1822:0.2773501 1858:0.2773501 1950:0.2773501 1952:0.2773501 
0.707106781187 692:0.40824829 1206:0.40824829 1496:0.40824829 1549:0.40824829 1621:0.40824829 2120:0.40824829 
0.707106781187 1510:0.70710678 1802:0.70710678 
0.4149906359340033 4:0.12216944 9:0.12216944 21:0.24433889 145:0.12216944 146:0.12216944 148:0.24433889 149:0.24433889 153:0.24433889 154:0.24433889 670:0.12216944 732:0.12216944 747:0.12216944 768:0.12216944 789:0.12216944 848:0.12216944 1221:0.12216944 1275:0.12216944 1361:0.24433889 1387:0.24433889 1397:0.12216944 1413:0.12216944 1422:0.12216944 1465:0.12216944 1476:0.12216944 1491:0.12216944 1550:0.12216944 1557:0.12216944 1578:0.12216944 1610:0.12216944 1629:0.12216944 1678:0.12216944 1715:0.12216944 1748:0.24433889 1759:0.12216944 1853:0.12216944 1856:0.12216944 1862:0.12216944 1965:0.12216944 1977:0.12216944 1996:0.12216944 2037:0.12216944 2068:0.12216944 2087:0.12216944 
0.707106781187 42:0.35355339 800:0.35355339 1200:0.35355339 1335:0.70710678 1929:0.35355339 
0.707106781187 41:0.19611614 389:0.19611614 677:0.19611614 739:0.19611614 789:0.19611614 798:0.19611614 1198:0.39223227 1209:0.19611614 1378:0.39223227 1467:0.19611614 1485:0.19611614 1636:0.39223227 1703:0.19611614 1867:0.19611614 1879:0.19611614 2064:0.19611614 2115:0.19611614 
0.707106781187 73:0.20851441 394:0.20851441 683:0.20851441 699:0.20851441 798:0.20851441 1241:0.20851441 1245:0.20851441 1363:0.20851441 1365:0.20851441 1368:0.20851441 1500:0.20851441 1501:0.20851441 1533:0.20851441 1535:0.20851441 1628:0.20851441 1676:0.20851441 1731:0.20851441 1736:0.20851441 1852:0.20851441 1909:0.20851441 2027:0.20851441 2035:0.20851441 2072:0.20851441 
0.3185918107064228 10:0.22222222 22:0.11111111 59:0.11111111 149:0.22222222 153:0.22222222 154:0.22222222 395:0.11111111 403:0.11111111 405:0.11111111 407:0.22222222 411:0.11111111 412:0.22222222 659:0.11111111 760:0.11111111 770:0.11111111 772:0.11111111 780:0.11111111 790:0.11111111 793:0.11111111 794:0.11111111 806:0.22222222 819:0.11111111 1220:0.33333333 1255:0.11111111 1286:0.11111111 1310:0.22222222 1343:0.11111111 1380:0.11111111 1409:0.11111111 1412:0.11111111 1530:0.11111111 1531:0.11111111 1541:0.11111111 1568:0.11111111 1577:0.11111111 1582:0.11111111 1595:0.11111111 1614:0.11111111 1615:0.11111111 1649:0.11111111 1679:0.11111111 1714:0.11111111 1747:0.11111111 1817:0.11111111 1825:0.11111111 1913:0.11111111 1970:0.11111111 1990:0.11111111 2036:0.11111111 
0.1918372964901969 10:0.40451992 22:0.13483997 41:0.13483997 47:0.13483997 395:0.13483997 399:0.13483997 403:0.13483997 408:0.13483997 423:0.13483997 587:0.13483997 679:0.13483997 697:0.13483997 767:0.13483997 771:0.13483997 774:0.13483997 781:0.13483997 788:0.13483997 795:0.13483997 1191:0.13483997 1296:0.13483997 1301:0.13483997 1372:0.13483997 1482:0.13483997 1522:0.13483997 1546:0.13483997 1556:0.13483997 1604:0.13483997 1634:0.13483997 1675:0.13483997 1685:0.13483997 1700:0.13483997 1730:0.13483997 1773:0.13483997 1783:0.13483997 1787:0.13483997 1806:0.13483997 1880:0.13483997 1905:0.13483997 1918:0.13483997 1925:0.13483997 1993:0.26967994 2027:0.13483997 2034:0.13483997 2036:0.13483997 
0.2337255782022492 8:0.10783277 10:0.53916387 11:0.10783277 22:0.21566555 44:0.10783277 57:0.10783277 65:0.21566555 74:0.10783277 79:0.43133109 400:0.10783277 401:0.10783277 580:0.10783277 609:0.10783277 664:0.10783277 692:0.10783277 758:0.10783277 759:0.10783277 815:0.10783277 1261:0.10783277 1329:0.10783277 1355:0.10783277 1381:0.10783277 1404:0.10783277 1486:0.10783277 1521:0.10783277 1558:0.10783277 1596:0.10783277 1602:0.10783277 1613:0.10783277 1651:0.10783277 1667:0.10783277 1724:0.10783277 1997:0.10783277 2022:0.10783277 2024:0.10783277 2045:0.10783277 2048:0.10783277 2059:0.10783277 2075:0.10783277 2095:0.10783277 2108:0.10783277 
0.707106781187 423:0.21821789 695:0.21821789 1251:0.65465367 1254:0.21821789 1370:0.21821789 1408:0.21821789 1459:0.21821789 1561:0.21821789 1670:0.21821789 1819:0.21821789 1873:0.21821789 1930:0.21821789 1989:0.21821789 
0.02877804644582874 4:0.1796053 9:0.1796053 10:0.3592106 11:0.1796053 22:0.3592106 43:0.1796053 44:0.1796053 57:0.1796053 59:0.1796053 65:0.1796053 79:0.3592106 466:0.1796053 580:0.1796053 657:0.1796053 678:0.1796053 690:0.1796053 1354:0.1796053 1605:0.1796053 1686:0.1796053 1833:0.1796053 2022:0.1796053 2032:0.1796053 
0.707106781187 22:0.31622777 44:0.31622777 694:0.31622777 799:0.31622777 1308:0.31622777 1399:0.31622777 1699:0.31622777 1772:0.31622777 2042:0.31622777 2049:0.31622777 
0.1422580165579434 4:0.13483997 9:0.13483997 10:0.40451992 43:0.13483997 47:0.13483997 65:0.13483997 69:0.13483997 79:0.26967994 147:0.13483997 150:0.13483997 396:0.13483997 409:0.26967994 602:0.13483997 676:0.13483997 690:0.13483997 697:0.13483997 753:0.13483997 761:0.13483997 1187:0.13483997 1291:0.13483997 1340:0.13483997 1376:0.13483997 1393:0.13483997 1406:0.13483997 1421:0.13483997 1490:0.13483997 1507:0.13483997 1518:0.13483997 1598:0.13483997 1757:0.13483997 1762:0.13483997 1786:0.13483997 1823:0.13483997 1866:0.13483997 1874:0.13483997 1898:0.13483997 1988:0.13483997 2032:0.13483997 2049:0.13483997 2065:0.13483997 2110:0.13483997 
0.00410104708018848 10:0.30499714 14:0.15249857 16:0.30499714 18:0.45749571 21:0.15249857 45:0.15249857 59:0.15249857 80:0.15249857 137:0.15249857 150:0.15249857 389:0.15249857 522:0.15249857 615:0.15249857 668:0.15249857 1298:0.15249857 1306:0.30499714 1358:0.15249857 1359:0.15249857 1444:0.15249857 1554:0.15249857 1883:0.15249857 2003:0.15249857 2019:0.15249857 2023:0.15249857 2106:0.15249857 2118:0.15249857 
0.2821909061409436 10:0.29172998 70:0.14586499 75:0.14586499 76:0.14586499 77:0.14586499 137:0.14586499 142:0.14586499 150:0.29172998 419:0.14586499 424:0.14586499 425:0.14586499 675:0.14586499 682:0.14586499 685:0.14586499 687:0.14586499 689:0.14586499 754:0.29172998 779:0.14586499 801:0.14586499 811:0.14586499 814:0.14586499 826:0.14586499 1284:0.14586499 1309:0.14586499 1451:0.14586499 1517:0.14586499 1520:0.14586499 1574:0.14586499 1624:0.14586499 1727:0.14586499 1755:0.14586499 1760:0.14586499 1922:0.14586499 1985:0.14586499 1999:0.14586499 2017:0.14586499 2027:0.14586499 2094:0.14586499 
0.3056357179009895 10:0.40824829 22:0.20412415 65:0.20412415 695:0.20412415 731:0.20412415 791:0.20412415 799:0.20412415 800:0.20412415 839:0.40824829 1235:0.20412415 1320:0.20412415 1388:0.20412415 1542:0.20412415 1581:0.20412415 1721:0.20412415 1971:0.20412415 1975:0.20412415 1996:0.20412415 
0.6964865131914122 22:0.5547002 43:0.13867505 44:0.13867505 49:0.13867505 55:0.13867505 57:0.2773501 74:0.13867505 143:0.13867505 392:0.13867505 397:0.13867505 466:0.13867505 746:0.13867505 756:0.13867505 762:0.13867505 766:0.13867505 832:0.13867505 1189:0.13867505 1269:0.13867505 1305:0.13867505 1322:0.13867505 1382:0.13867505 1537:0.13867505 1616:0.13867505 1619:0.13867505 1781:0.13867505 1795:0.13867505 1999:0.2773501 2074:0.13867505 2092:0.13867505 2097:0.13867505 2100:0.13867505 
0.1896674756231946 10:0.13018891 30:0.26037782 49:0.13018891 75:0.13018891 76:0.13018891 77:0.13018891 145:0.13018891 149:0.13018891 150:0.26037782 153:0.13018891 154:0.13018891 424:0.13018891 602:0.26037782 609:0.13018891 688:0.13018891 754:0.39056673 758:0.13018891 773:0.13018891 783:0.26037782 797:0.13018891 805:0.13018891 806:0.13018891 812:0.13018891 813:0.13018891 820:0.13018891 825:0.13018891 839:0.13018891 1192:0.13018891 1214:0.13018891 1497:0.13018891 1594:0.13018891 1617:0.13018891 1625:0.13018891 1639:0.13018891 1872:0.13018891 1896:0.13018891 1935:0.13018891 1997:0.13018891 2021:0.13018891 
0.707106781187 678:0.28867513 832:0.28867513 1239:0.28867513 1273:0.28867513 1713:0.28867513 1884:0.28867513 1949:0.28867513 1972:0.28867513 2023:0.28867513 2065:0.28867513 2070:0.28867513 2077:0.28867513 
0.707106781187 80:0.25 465:0.25 533:0.25 576:0.25 676:0.25 1480:0.25 1626:0.25 1716:0.25 1719:0.25 1754:0.25 1767:0.25 1886:0.25 1955:0.25 2004:0.25 2023:0.25 2064:0.25 
0.707106781187 52:0.17407766 53:0.17407766 54:0.17407766 80:0.17407766 150:0.17407766 418:0.52223297 754:0.17407766 848:0.17407766 1642:0.17407766 1769:0.34815531 1848:0.17407766 1934:0.17407766 2021:0.17407766 2030:0.52223297 
0.707106781187 10:0.21320072 43:0.21320072 59:0.21320072 420:0.21320072 465:0.21320072 533:0.21320072 602:0.21320072 827:0.21320072 1215:0.21320072 1278:0.21320072 1342:0.21320072 1352:0.21320072 1469:0.21320072 1559:0.21320072 1597:0.21320072 1729:0.21320072 1827:0.21320072 1878:0.21320072 2018:0.21320072 2049:0.21320072 2086:0.21320072 2113:0.21320072 
0.03405707303914272 10:0.12909944 14:0.12909944 16:0.51639778 18:0.64549722 19:0.12909944 20:0.12909944 30:0.12909944 65:0.12909944 79:0.25819889 140:0.12909944 807:0.12909944 1204:0.12909944 1208:0.12909944 1317:0.12909944 1425:0.12909944 1774:0.12909944 1815:0.12909944 1966:0.12909944 
0.691737269618369 142:0.57735027 674:0.57735027 1299:0.57735027 
0.707106781187 10:0.33333333 756:0.33333333 782:0.33333333 1268:0.33333333 1390:0.33333333 1447:0.33333333 1691:0.33333333 1751:0.33333333 1799:0.33333333 
0.707106781187 786:0.4472136 1311:0.4472136 1600:0.4472136 2019:0.4472136 2105:0.4472136 
0.2124667395672728 4:0.093658581 9:0.093658581 10:0.18731716 22:0.093658581 30:0.46829291 44:0.093658581 49:0.28097574 55:0.093658581 57:0.093658581 74:0.093658581 75:0.093658581 77:0.093658581 141:0.093658581 143:0.093658581 150:0.18731716 408:0.093658581 425:0.093658581 465:0.093658581 533:0.093658581 602:0.18731716 609:0.093658581 672:0.093658581 674:0.093658581 688:0.093658581 754:0.18731716 756:0.093658581 763:0.093658581 773:0.093658581 783:0.28097574 791:0.093658581 796:0.093658581 797:0.093658581 820:0.093658581 824:0.093658581 825:0.093658581 828:0.18731716 839:0.18731716 1190:0.093658581 1192:0.093658581 1295:0.093658581 1367:0.093658581 1375:0.093658581 1411:0.093658581 1632:0.093658581 1652:0.093658581 1658:0.093658581 1948:0.093658581 2021:0.18731716 2059:0.18731716 2103:0.093658581 
0.04129536164893621 10:0.3560345 22:0.11867817 29:0.11867817 43:0.11867817 44:0.11867817 57:0.11867817 59:0.47471266 397:0.23735633 465:0.11867817 466:0.11867817 533:0.11867817 576:0.11867817 580:0.11867817 673:0.11867817 675:0.11867817 676:0.11867817 781:0.11867817 810:0.11867817 821:0.11867817 1266:0.11867817 1325:0.23735633 1384:0.11867817 1391:0.11867817 1443:0.11867817 1499:0.11867817 1648:0.11867817 1680:0.11867817 1710:0.11867817 1771:0.11867817 1778:0.11867817 1791:0.11867817 1803:0.11867817 1820:0.11867817 1821:0.11867817 1882:0.11867817 1912:0.11867817 1920:0.11867817 1961:0.11867817 2017:0.11867817 2020:0.11867817 2024:0.11867817 2030:0.11867817 
0.4115591280613106 10:0.12909944 18:0.12909944 43:0.12909944 75:0.12909944 76:0.12909944 77:0.12909944 137:0.12909944 150:0.51639778 417:0.12909944 424:0.12909944 682:0.12909944 685:0.12909944 687:0.12909944 689:0.12909944 754:0.51639778 1189:0.12909944 1224:0.12909944 1332:0.12909944 1398:0.12909944 1418:0.12909944 1588:0.12909944 1860:0.12909944 1959:0.25819889 1984:0.12909944 2029:0.12909944 2047:0.12909944 2093:0.12909944 
0.5956978702691201 10:0.16012815 59:0.16012815 78:0.16012815 141:0.32025631 150:0.16012815 576:0.16012815 587:0.16012815 671:0.16012815 690:0.16012815 697:0.16012815 730:0.16012815 735:0.16012815 788:0.16012815 839:0.16012815 1191:0.16012815 1212:0.16012815 1226:0.16012815 1287:0.16012815 1300:0.16012815 1364:0.16012815 1396:0.16012815 1505:0.16012815 1516:0.16012815 1726:0.16012815 1792:0.16012815 1854:0.16012815 1906:0.16012815 1924:0.16012815 1946:0.16012815 1999:0.16012815 2034:0.16012815 2042:0.16012815 2049:0.16012815 2080:0.16012815 2099:0.16012815 2109:0.16012815 
0.707106781187 823:0.40824829 1357:0.40824829 1503:0.40824829 1997:0.40824829 1998:0.40824829 2014:0.40824829 
0.707106781187 576:0.28867513 669:0.28867513 671:0.57735027 744:0.28867513 1349:0.28867513 1555:0.28867513 1763:0.28867513 1974:0.28867513 2064:0.28867513 
0.707106781187 47:1 
0.4713061097362578 10:0.40201513 11:0.10050378 22:0.20100756 29:0.10050378 41:0.30151134 65:0.10050378 73:0.10050378 675:0.10050378 683:0.20100756 757:0.10050378 766:0.10050378 1202:0.30151134 1211:0.20100756 1264:0.10050378 1288:0.10050378 1416:0.10050378 1455:0.10050378 1539:0.10050378 1657:0.10050378 1735:0.10050378 1738:0.20100756 1777:0.10050378 1789:0.10050378 1843:0.30151134 1851:0.10050378 1962:0.10050378 1991:0.10050378 2010:0.10050378 2018:0.20100756 2020:0.10050378 2035:0.20100756 2043:0.10050378 2050:0.30151134 2067:0.10050378 
0.4029902257417746 10:0.57735027 1811:0.57735027 1915:0.57735027 
0.6263882812347579 10:0.2236068 22:0.2236068 55:0.2236068 59:0.2236068 150:0.2236068 665:0.2236068 756:0.2236068 771:0.2236068 1232:0.2236068 1290:0.2236068 1323:0.2236068 1327:0.2236068 1347:0.2236068 1449:0.2236068 1611:0.2236068 1814:0.2236068 1895:0.2236068 1983:0.2236068 1986:0.2236068 2020:0.2236068 
0.707106781187 21:0.21320072 137:0.21320072 522:0.42640143 669:0.21320072 679:0.21320072 768:0.21320072 792:0.21320072 812:0.21320072 1336:0.21320072 1430:0.21320072 1446:0.21320072 1470:0.21320072 1524:0.21320072 1655:0.21320072 1838:0.21320072 1842:0.21320072 1855:0.21320072 1907:0.21320072 2003:0.21320072 
0.5773309016608631 10:0.34299717 47:0.17149859 80:0.17149859 146:0.17149859 666:0.17149859 679:0.17149859 750:0.17149859 785:0.17149859 1185:0.17149859 1282:0.17149859 1303:0.17149859 1313:0.17149859 1466:0.17149859 1508:0.17149859 1563:0.17149859 1564:0.17149859 1567:0.34299717 1712:0.34299717 1720:0.17149859 1801:0.17149859 1869:0.17149859 1926:0.17149859 2031:0.17149859 2076:0.17149859 2096:0.17149859 
0.007941628717677186 4:0.21442251 8:0.10721125 9:0.10721125 10:0.10721125 13:0.10721125 21:0.10721125 22:0.10721125 43:0.21442251 44:0.10721125 47:0.32163376 55:0.10721125 65:0.10721125 74:0.10721125 75:0.10721125 76:0.21442251 77:0.10721125 79:0.21442251 137:0.10721125 143:0.10721125 144:0.10721125 150:0.10721125 392:0.10721125 394:0.10721125 403:0.10721125 409:0.10721125 424:0.32163376 427:0.10721125 503:0.10721125 597:0.10721125 628:0.10721125 678:0.10721125 680:0.10721125 681:0.10721125 691:0.10721125 693:0.10721125 694:0.10721125 696:0.10721125 698:0.10721125 741:0.10721125 754:0.10721125 796:0.10721125 1262:0.10721125 1289:0.10721125 1371:0.10721125 1433:0.10721125 1623:0.10721125 1780:0.10721125 1804:0.21442251 1830:0.10721125 1995:0.10721125 2000:0.10721125 2003:0.10721125 2017:0.10721125 2038:0.10721125 2059:0.10721125 2102:0.10721125 
0.707106781187 17:0.20306923 21:0.10153462 41:0.10153462 43:0.10153462 47:0.20306923 75:0.10153462 76:0.10153462 77:0.10153462 137:0.20306923 139:0.10153462 150:0.6092077 424:0.10153462 660:0.10153462 682:0.10153462 685:0.10153462 687:0.10153462 689:0.10153462 752:0.10153462 754:0.30460385 821:0.10153462 1637:0.20306923 1640:0.10153462 1672:0.10153462 1739:0.20306923 1752:0.20306923 1836:0.20306923 1837:0.10153462 1941:0.10153462 2003:0.10153462 2047:0.10153462 2067:0.10153462 2090:0.10153462 2101:0.10153462 
0.707106781187 13:0.11952286 21:0.11952286 22:0.11952286 44:0.11952286 47:0.11952286 55:0.11952286 57:0.11952286 74:0.23904572 76:0.11952286 137:0.11952286 139:0.11952286 143:0.11952286 392:0.11952286 394:0.11952286 409:0.11952286 424:0.11952286 427:0.11952286 503:0.11952286 597:0.11952286 628:0.11952286 680:0.11952286 681:0.11952286 693:0.11952286 696:0.11952286 698:0.11952286 774:0.11952286 778:0.11952286 792:0.11952286 818:0.23904572 1240:0.11952286 1242:0.11952286 1246:0.11952286 1270:0.11952286 1274:0.11952286 1276:0.11952286 1334:0.11952286 1338:0.11952286 1353:0.11952286 1415:0.23904572 1492:0.11952286 1512:0.11952286 1576:0.11952286 1590:0.11952286 1607:0.11952286 1638:0.11952286 1687:0.11952286 1725:0.11952286 1740:0.11952286 1782:0.11952286 1796:0.11952286 1807:0.11952286 1816:0.11952286 1857:0.11952286 1900:0.11952286 1981:0.11952286 1995:0.23904572 2000:0.11952286 2003:0.11952286 
0.707106781187 10:0.17149859 59:0.17149859 145:0.17149859 389:0.17149859 580:0.17149859 663:0.17149859 699:0.17149859 737:0.17149859 814:0.17149859 1247:0.34299717 1427:0.34299717 1477:0.17149859 1551:0.17149859 1584:0.17149859 1706:0.17149859 1897:0.17149859 1904:0.17149859 1931:0.17149859 1933:0.34299717 1993:0.34299717 2033:0.17149859 2082:0.17149859 
0.20700747304064 4:0.3560345 9:0.23735633 22:0.3560345 49:0.11867817 145:0.11867817 149:0.23735633 150:0.11867817 395:0.3560345 403:0.11867817 408:0.11867817 503:0.11867817 597:0.11867817 615:0.11867817 628:0.11867817 684:0.11867817 691:0.11867817 738:0.11867817 757:0.11867817 760:0.11867817 761:0.11867817 785:0.11867817 802:0.11867817 810:0.11867817 822:0.11867817 1234:0.11867817 1244:0.11867817 1438:0.11867817 1523:0.11867817 1572:0.11867817 1654:0.11867817 1744:0.11867817 1765:0.11867817 1870:0.11867817 1876:0.11867817 1893:0.11867817 1901:0.11867817 1939:0.11867817 2059:0.23735633 
0.707106781187 10:0.24253563 72:0.24253563 80:0.24253563 145:0.24253563 416:0.24253563 421:0.24253563 784:0.24253563 848:0.24253563 1187:0.48507125 1188:0.24253563 1356:0.24253563 1366:0.24253563 1429:0.24253563 1923:0.24253563 
0.707106781187 16:0.40824829 30:0.40824829 1350:0.40824829 1938:0.40824829 1960:0.40824829 2030:0.40824829 
0.707106781187 10:0.21821789 695:0.21821789 809:0.21821789 1260:0.21821789 1351:0.21821789 1528:0.43643578 1538:0.21821789 1609:0.21821789 1656:0.21821789 1668:0.21821789 1709:0.21821789 1743:0.21821789 1805:0.21821789 1832:0.21821789 1993:0.21821789 2002:0.21821789 2007:0.21821789 2040:0.21821789 
0.212399319759353 21:0.12700013 22:0.25400025 41:0.12700013 43:0.12700013 44:0.25400025 47:0.12700013 55:0.12700013 57:0.25400025 74:0.25400025 78:0.12700013 137:0.12700013 143:0.12700013 144:0.12700013 150:0.12700013 392:0.12700013 394:0.12700013 397:0.12700013 409:0.12700013 615:0.25400025 669:0.12700013 699:0.25400025 754:0.12700013 790:0.25400025 832:0.12700013 1328:0.25400025 1456:0.12700013 1474:0.12700013 1478:0.12700013 1589:0.12700013 1618:0.12700013 1674:0.12700013 2002:0.12700013 2003:0.12700013 2023:0.12700013 2046:0.25400025 
0.707106781187 4:0.21821789 9:0.21821789 729:0.43643578 753:0.21821789 759:0.21821789 1203:0.21821789 1258:0.21821789 1318:0.21821789 1526:0.21821789 1534:0.21821789 1681:0.21821789 1723:0.21821789 1788:0.21821789 1914:0.21821789 1917:0.21821789 1928:0.21821789 1945:0.21821789 1998:0.21821789 
0.707106781187 21:0.15617376 28:0.15617376 423:0.15617376 764:0.15617376 770:0.15617376 777:0.15617376 802:0.15617376 1201:0.15617376 1210:0.15617376 1213:0.15617376 1230:0.15617376 1238:0.15617376 1272:0.15617376 1280:0.15617376 1377:0.15617376 1437:0.15617376 1440:0.15617376 1453:0.46852129 1552:0.15617376 1585:0.15617376 1622:0.15617376 1665:0.15617376 1695:0.15617376 1697:0.15617376 1708:0.15617376 1797:0.15617376 1846:0.15617376 1850:0.15617376 1864:0.15617376 1865:0.15617376 1868:0.15617376 2079:0.15617376 2117:0.15617376 
0.707106781187 1493:0.70710678 1650:0.70710678 
0.707106781187 1285:0.21821789 1324:0.21821789 1529:0.21821789 1919:0.21821789 1968:0.21821789 2066:0.87287156 
0.707106781187 4:0.10721125 45:0.10721125 71:0.10721125 391:0.10721125 406:0.10721125 413:0.10721125 423:0.10721125 658:0.10721125 742:0.10721125 787:0.10721125 816:0.10721125 1237:0.10721125 1302:0.10721125 1344:0.10721125 1423:0.10721125 1473:0.10721125 1683:0.10721125 1732:0.10721125 1742:0.10721125 1753:0.10721125 1770:0.10721125 1775:0.10721125 1785:0.10721125 1798:0.10721125 1813:0.53605627 1829:0.10721125 1863:0.10721125 1889:0.10721125 1891:0.10721125 1903:0.10721125 1936:0.10721125 1937:0.10721125 1957:0.10721125 1967:0.10721125 1973:0.10721125 1979:0.10721125 2070:0.10721125 2104:0.10721125 2116:0.53605627 
0.707106781187 775:0.4472136 824:0.4472136 1236:0.4472136 1809:0.4472136 1824:0.4472136 
-0.4513419880016639 27:0.33333333 67:0.33333333 748:0.33333333 756:0.66666667 2045:0.33333333 2058:0.33333333 
-0.1299121380591005 36:0.57735027 252:0.57735027 285:0.57735027 
-0.1223900381341224 51:0.70710678 273:0.70710678 
-0.2757288267108033 71:0.37796447 138:0.37796447 278:0.37796447 283:0.37796447 296:0.37796447 317:0.37796447 669:0.37796447 
-0.2300694467185939 70:0.70710678 337:0.70710678 
-0.03535184652009952 11:0.25 39:0.125 66:0.125 95:0.125 99:0.125 111:0.125 155:0.125 169:0.125 175:0.125 182:0.125 184:0.125 185:0.125 199:0.25 201:0.125 202:0.125 222:0.125 257:0.125 259:0.125 260:0.125 265:0.125 270:0.125 272:0.125 282:0.25 291:0.125 304:0.125 305:0.125 306:0.125 310:0.125 312:0.125 327:0.25 331:0.125 335:0.125 343:0.25 352:0.125 366:0.125 370:0.25 376:0.25 379:0.125 386:0.125 656:0.125 755:0.125 1191:0.125 2062:0.125 
-0.3882926921622478 112:0.10660036 133:0.10660036 149:0.10660036 153:0.10660036 154:0.10660036 157:0.10660036 163:0.10660036 164:0.10660036 167:0.10660036 172:0.10660036 173:0.10660036 176:0.10660036 189:0.10660036 192:0.10660036 194:0.21320072 203:0.10660036 204:0.10660036 216:0.10660036 221:0.10660036 224:0.10660036 243:0.10660036 247:0.21320072 249:0.10660036 268:0.10660036 275:0.31980107 284:0.21320072 288:0.21320072 289:0.10660036 297:0.10660036 298:0.10660036 309:0.10660036 313:0.10660036 314:0.10660036 321:0.10660036 322:0.10660036 334:0.10660036 340:0.10660036 348:0.10660036 350:0.10660036 369:0.10660036 377:0.10660036 387:0.10660036 701:0.53300179 1190:0.10660036 
-0.3140905214801997 38:0.12038585 90:0.12038585 92:0.12038585 158:0.12038585 171:0.12038585 206:0.12038585 209:0.12038585 210:0.12038585 211:0.24077171 213:0.12038585 214:0.12038585 217:0.12038585 219:0.12038585 220:0.12038585 223:0.12038585 227:0.12038585 229:0.12038585 235:0.12038585 240:0.12038585 241:0.12038585 242:0.12038585 245:0.12038585 246:0.12038585 248:0.12038585 250:0.24077171 256:0.12038585 269:0.12038585 276:0.12038585 290:0.12038585 292:0.12038585 294:0.12038585 295:0.12038585 300:0.12038585 302:0.12038585 308:0.12038585 315:0.12038585 324:0.24077171 328:0.12038585 333:0.12038585 341:0.12038585 356:0.12038585 358:0.12038585 361:0.12038585 363:0.12038585 364:0.12038585 365:0.12038585 367:0.12038585 371:0.12038585 380:0.12038585 423:0.12038585 731:0.12038585 732:0.12038585 750:0.12038585 751:0.12038585 2022:0.24077171 2023:0.12038585 2056:0.12038585 
-0.2440745894183003 225:0.5 263:0.5 301:0.5 2052:0.5 
-0.2857250583623696 37:0.40824829 139:0.40824829 299:0.40824829 418:0.40824829 742:0.40824829 753:0.40824829 
-0.3724548530938695 11:0.2 12:0.2 15:0.2 35:0.2 40:0.2 186:0.2 191:0.2 200:0.2 205:0.2 238:0.2 267:0.2 293:0.2 339:0.2 384:0.2 755:0.2 756:0.2 1192:0.2 1193:0.2 2028:0.2 2046:0.2 2053:0.2 2054:0.2 2055:0.2 2060:0.2 2070:0.2 
-0.3360107494666838 26:0.18898224 127:0.18898224 165:0.18898224 177:0.18898224 181:0.18898224 183:0.18898224 208:0.18898224 218:0.18898224 231:0.18898224 266:0.18898224 287:0.18898224 329:0.18898224 347:0.18898224 354:0.18898224 362:0.18898224 374:0.18898224 375:0.18898224 419:0.18898224 664:0.18898224 729:0.18898224 730:0.18898224 737:0.18898224 740:0.18898224 749:0.18898224 753:0.18898224 828:0.18898224 2002:0.18898224 2027:0.18898224 
-0.104524208279058 138:0.4472136 198:0.4472136 207:0.4472136 372:0.4472136 741:0.4472136 
-0.3960288060939138 71:0.57735027 258:0.57735027 2023:0.57735027 
-0.2002049537350252 67:0.33333333 82:0.33333333 174:0.33333333 346:0.66666667 734:0.33333333 1188:0.33333333 
-0.2193223948249959 196:0.4472136 215:0.4472136 251:0.4472136 303:0.4472136 318:0.4472136 
-0.19885077580676 36:0.16439899 37:0.16439899 63:0.16439899 69:0.16439899 100:0.16439899 139:0.16439899 160:0.16439899 232:0.16439899 236:0.16439899 237:0.16439899 239:0.16439899 254:0.16439899 279:0.16439899 286:0.16439899 338:0.16439899 344:0.16439899 345:0.16439899 353:0.16439899 355:0.16439899 382:0.16439899 418:0.16439899 699:0.16439899 738:0.16439899 745:0.16439899 746:0.16439899 846:0.32879797 1187:0.32879797 1189:0.16439899 2020:0.16439899 2029:0.16439899 2051:0.16439899 
-0.707106781187 27:0.33333333 67:0.33333333 748:0.33333333 756:0.66666667 2045:0.33333333 2058:0.33333333 
-0.4165875780446318 11:0.098058068 17:0.19611614 24:0.098058068 27:0.098058068 60:0.098058068 81:0.098058068 83:0.098058068 84:0.098058068 85:0.098058068 88:0.098058068 89:0.098058068 91:0.19611614 93:0.098058068 97:0.098058068 98:0.098058068 103:0.19611614 105:0.098058068 106:0.098058068 108:0.098058068 109:0.19611614 110:0.098058068 114:0.098058068 116:0.098058068 117:0.098058068 119:0.098058068 120:0.098058068 122:0.098058068 123:0.098058068 124:0.098058068 126:0.098058068 128:0.39223227 134:0.39223227 135:0.098058068 136:0.098058068 150:0.2941742 655:0.098058068 661:0.098058068 662:0.098058068 666:0.19611614 667:0.098058068 829:0.098058068 1993:0.19611614 2001:0.098058068 2024:0.098058068 2025:0.098058068 2048:0.098058068 2049:0.098058068 2050:0.098058068 
-0.707106781187 36:0.57735027 252:0.57735027 285:0.57735027 
-0.707106781187 51:0.70710678 273:0.70710678 
-0.707106781187 71:0.37796447 138:0.37796447 278:0.37796447 283:0.37796447 296:0.37796447 317:0.37796447 669:0.37796447 
-0.1527948528307945 1:0.11470787 11:0.22941573 12:0.22941573 15:0.22941573 29:0.11470787 31:0.11470787 35:0.11470787 38:0.11470787 40:0.22941573 59:0.11470787 69:0.11470787 101:0.11470787 121:0.11470787 130:0.11470787 161:0.11470787 170:0.11470787 188:0.11470787 190:0.11470787 195:0.11470787 197:0.11470787 230:0.11470787 244:0.11470787 255:0.11470787 261:0.11470787 271:0.11470787 277:0.11470787 307:0.11470787 320:0.11470787 323:0.11470787 332:0.11470787 336:0.11470787 351:0.11470787 373:0.11470787 419:0.11470787 658:0.11470787 660:0.57353933 739:0.11470787 754:0.11470787 2017:0.11470787 2026:0.11470787 
-0.707106781187 70:0.70710678 337:0.70710678 
-0.707106781187 11:0.25 39:0.125 66:0.125 95:0.125 99:0.125 111:0.125 155:0.125 169:0.125 175:0.125 182:0.125 184:0.125 185:0.125 199:0.25 201:0.125 202:0.125 222:0.125 257:0.125 259:0.125 260:0.125 265:0.125 270:0.125 272:0.125 282:0.25 291:0.125 304:0.125 305:0.125 306:0.125 310:0.125 312:0.125 327:0.25 331:0.125 335:0.125 343:0.25 352:0.125 366:0.125 370:0.25 376:0.25 379:0.125 386:0.125 656:0.125 755:0.125 1191:0.125 2062:0.125 
-0.707106781187 112:0.10660036 133:0.10660036 149:0.10660036 153:0.10660036 154:0.10660036 157:0.10660036 163:0.10660036 164:0.10660036 167:0.10660036 172:0.10660036 173:0.10660036 176:0.10660036 189:0.10660036 192:0.10660036 194:0.21320072 203:0.10660036 204:0.10660036 216:0.10660036 221:0.10660036 224:0.10660036 243:0.10660036 247:0.21320072 249:0.10660036 268:0.10660036 275:0.31980107 284:0.21320072 288:0.21320072 289:0.10660036 297:0.10660036 298:0.10660036 309:0.10660036 313:0.10660036 314:0.10660036 321:0.10660036 322:0.10660036 334:0.10660036 340:0.10660036 348:0.10660036 350:0.10660036 369:0.10660036 377:0.10660036 387:0.10660036 701:0.53300179 1190:0.10660036 
-0.707106781187 38:0.12038585 90:0.12038585 92:0.12038585 158:0.12038585 171:0.12038585 206:0.12038585 209:0.12038585 210:0.12038585 211:0.24077171 213:0.12038585 214:0.12038585 217:0.12038585 219:0.12038585 220:0.12038585 223:0.12038585 227:0.12038585 229:0.12038585 235:0.12038585 240:0.12038585 241:0.12038585 242:0.12038585 245:0.12038585 246:0.12038585 248:0.12038585 250:0.24077171 256:0.12038585 269:0.12038585 276:0.12038585 290:0.12038585 292:0.12038585 294:0.12038585 295:0.12038585 300:0.12038585 302:0.12038585 308:0.12038585 315:0.12038585 324:0.24077171 328:0.12038585 333:0.12038585 341:0.12038585 356:0.12038585 358:0.12038585 361:0.12038585 363:0.12038585 364:0.12038585 365:0.12038585 367:0.12038585 371:0.12038585 380:0.12038585 423:0.12038585 731:0.12038585 732:0.12038585 750:0.12038585 751:0.12038585 2022:0.24077171 2023:0.12038585 2056:0.12038585 
-0.707106781187 225:0.5 263:0.5 301:0.5 2052:0.5 
-0.707106781187 37:0.40824829 139:0.40824829 299:0.40824829 418:0.40824829 742:0.40824829 753:0.40824829 
-0.707106781187 11:0.2 12:0.2 15:0.2 35:0.2 40:0.2 186:0.2 191:0.2 200:0.2 205:0.2 238:0.2 267:0.2 293:0.2 339:0.2 384:0.2 755:0.2 756:0.2 1192:0.2 1193:0.2 2028:0.2 2046:0.2 2053:0.2 2054:0.2 2055:0.2 2060:0.2 2070:0.2 
-0.707106781187 26:0.18898224 127:0.18898224 165:0.18898224 177:0.18898224 181:0.18898224 183:0.18898224 208:0.18898224 218:0.18898224 231:0.18898224 266:0.18898224 287:0.18898224 329:0.18898224 347:0.18898224 354:0.18898224 362:0.18898224 374:0.18898224 375:0.18898224 419:0.18898224 664:0.18898224 729:0.18898224 730:0.18898224 737:0.18898224 740:0.18898224 749:0.18898224 753:0.18898224 828:0.18898224 2002:0.18898224 2027:0.18898224 
-0.5959306313475777 26:0.26726124 264:0.26726124 319:0.26726124 330:0.26726124 420:0.80178373 830:0.26726124 
-0.707106781187 138:0.4472136 198:0.4472136 207:0.4472136 372:0.4472136 741:0.4472136 
-0.01924971425019457 28:0.57735027 86:0.57735027 104:0.57735027 
-0.707106781187 71:0.57735027 258:0.57735027 2023:0.57735027 
-0.707106781187 67:0.33333333 82:0.33333333 174:0.33333333 346:0.66666667 734:0.33333333 1188:0.33333333 
-0.707106781187 24:0.31622777 28:0.31622777 132:0.31622777 311:0.31622777 383:0.31622777 657:0.31622777 665:0.31622777 756:0.31622777 2030:0.31622777 2057:0.31622777 
-0.707106781187 196:0.4472136 215:0.4472136 251:0.4472136 303:0.4472136 318:0.4472136 
-0.707106781187 36:0.16439899 37:0.16439899 63:0.16439899 69:0.16439899 100:0.16439899 139:0.16439899 160:0.16439899 232:0.16439899 236:0.16439899 237:0.16439899 239:0.16439899 254:0.16439899 279:0.16439899 286:0.16439899 338:0.16439899 344:0.16439899 345:0.16439899 353:0.16439899 355:0.16439899 382:0.16439899 418:0.16439899 699:0.16439899 738:0.16439899 745:0.16439899 746:0.16439899 846:0.32879797 1187:0.32879797 1189:0.16439899 2020:0.16439899 2029:0.16439899 2051:0.16439899 
-0.05633694194665542 1:0.33333333 62:0.33333333 64:0.33333333 96:0.33333333 107:0.33333333 281:0.33333333 659:0.33333333 736:0.33333333 753:0.33333333 
-0.6834891797211684 27:0.33333333 67:0.33333333 748:0.33333333 756:0.66666667 2045:0.33333333 2058:0.33333333 
-0.5303752624906376 1:0.26726124 13:0.26726124 102:0.26726124 113:0.26726124 125:0.26726124 129:0.26726124 131:0.26726124 668:0.26726124 700:0.26726124 848:0.53452248 2120:0.26726124 
-0.707106781187 11:0.098058068 17:0.19611614 24:0.098058068 27:0.098058068 60:0.098058068 81:0.098058068 83:0.098058068 84:0.098058068 85:0.098058068 88:0.098058068 89:0.098058068 91:0.19611614 93:0.098058068 97:0.098058068 98:0.098058068 103:0.19611614 105:0.098058068 106:0.098058068 108:0.098058068 109:0.19611614 110:0.098058068 114:0.098058068 116:0.098058068 117:0.098058068 119:0.098058068 120:0.098058068 122:0.098058068 123:0.098058068 124:0.098058068 126:0.098058068 128:0.39223227 134:0.39223227 135:0.098058068 136:0.098058068 150:0.2941742 655:0.098058068 661:0.098058068 662:0.098058068 666:0.19611614 667:0.098058068 829:0.098058068 1993:0.19611614 2001:0.098058068 2024:0.098058068 2025:0.098058068 2048:0.098058068 2049:0.098058068 2050:0.098058068 
-0.707106781187 36:0.57735027 252:0.57735027 285:0.57735027 
-0.700680624132919 51:0.70710678 273:0.70710678 
-0.7045502894636294 71:0.37796447 138:0.37796447 278:0.37796447 283:0.37796447 296:0.37796447 317:0.37796447 669:0.37796447 
-0.1850025416488463 1:0.29851116 2:0.29851116 11:0.4975186 29:0.099503719 32:0.099503719 33:0.19900744 34:0.099503719 58:0.39801488 68:0.099503719 70:0.099503719 94:0.099503719 149:0.099503719 153:0.099503719 154:0.099503719 156:0.099503719 159:0.099503719 180:0.099503719 187:0.099503719 212:0.099503719 226:0.099503719 233:0.099503719 253:0.099503719 262:0.099503719 274:0.099503719 280:0.19900744 325:0.099503719 326:0.19900744 342:0.099503719 349:0.099503719 357:0.099503719 360:0.099503719 381:0.099503719 388:0.099503719 421:0.099503719 733:0.099503719 744:0.099503719 2021:0.099503719 
-0.6896634977629146 1:0.11470787 11:0.22941573 12:0.22941573 15:0.22941573 29:0.11470787 31:0.11470787 35:0.11470787 38:0.11470787 40:0.22941573 59:0.11470787 69:0.11470787 101:0.11470787 121:0.11470787 130:0.11470787 161:0.11470787 170:0.11470787 188:0.11470787 190:0.11470787 195:0.11470787 197:0.11470787 230:0.11470787 244:0.11470787 255:0.11470787 261:0.11470787 271:0.11470787 277:0.11470787 307:0.11470787 320:0.11470787 323:0.11470787 332:0.11470787 336:0.11470787 351:0.11470787 373:0.11470787 419:0.11470787 658:0.11470787 660:0.57353933 739:0.11470787 754:0.11470787 2017:0.11470787 2026:0.11470787 
-0.6893332180119026 70:0.70710678 337:0.70710678 
-0.7047199357939338 11:0.25 39:0.125 66:0.125 95:0.125 99:0.125 111:0.125 155:0.125 169:0.125 175:0.125 182:0.125 184:0.125 185:0.125 199:0.25 201:0.125 202:0.125 222:0.125 257:0.125 259:0.125 260:0.125 265:0.125 270:0.125 272:0.125 282:0.25 291:0.125 304:0.125 305:0.125 306:0.125 310:0.125 312:0.125 327:0.25 331:0.125 335:0.125 343:0.25 352:0.125 366:0.125 370:0.25 376:0.25 379:0.125 386:0.125 656:0.125 755:0.125 1191:0.125 2062:0.125 
-0.707106781187 112:0.10660036 133:0.10660036 149:0.10660036 153:0.10660036 154:0.10660036 157:0.10660036 163:0.10660036 164:0.10660036 167:0.10660036 172:0.10660036 173:0.10660036 176:0.10660036 189:0.10660036 192:0.10660036 194:0.21320072 203:0.10660036 204:0.10660036 216:0.10660036 221:0.10660036 224:0.10660036 243:0.10660036 247:0.21320072 249:0.10660036 268:0.10660036 275:0.31980107 284:0.21320072 288:0.21320072 289:0.10660036 297:0.10660036 298:0.10660036 309:0.10660036 313:0.10660036 314:0.10660036 321:0.10660036 322:0.10660036 334:0.10660036 340:0.10660036 348:0.10660036 350:0.10660036 369:0.10660036 377:0.10660036 387:0.10660036 701:0.53300179 1190:0.10660036 
-0.707106781187 38:0.12038585 90:0.12038585 92:0.12038585 158:0.12038585 171:0.12038585 206:0.12038585 209:0.12038585 210:0.12038585 211:0.24077171 213:0.12038585 214:0.12038585 217:0.12038585 219:0.12038585 220:0.12038585 223:0.12038585 227:0.12038585 229:0.12038585 235:0.12038585 240:0.12038585 241:0.12038585 242:0.12038585 245:0.12038585 246:0.12038585 248:0.12038585 250:0.24077171 256:0.12038585 269:0.12038585 276:0.12038585 290:0.12038585 292:0.12038585 294:0.12038585 295:0.12038585 300:0.12038585 302:0.12038585 308:0.12038585 315:0.12038585 324:0.24077171 328:0.12038585 333:0.12038585 341:0.12038585 356:0.12038585 358:0.12038585 361:0.12038585 363:0.12038585 364:0.12038585 365:0.12038585 367:0.12038585 371:0.12038585 380:0.12038585 423:0.12038585 731:0.12038585 732:0.12038585 750:0.12038585 751:0.12038585 2022:0.24077171 2023:0.12038585 2056:0.12038585 
-0.7060777458210171 225:0.5 263:0.5 301:0.5 2052:0.5 
-0.6823224882873371 37:0.40824829 139:0.40824829 299:0.40824829 418:0.40824829 742:0.40824829 753:0.40824829 
-0.707106781187 11:0.2 12:0.2 15:0.2 35:0.2 40:0.2 186:0.2 191:0.2 200:0.2 205:0.2 238:0.2 267:0.2 293:0.2 339:0.2 384:0.2 755:0.2 756:0.2 1192:0.2 1193:0.2 2028:0.2 2046:0.2 2053:0.2 2054:0.2 2055:0.2 2060:0.2 2070:0.2 
-0.6933184147437297 26:0.18898224 127:0.18898224 165:0.18898224 177:0.18898224 181:0.18898224 183:0.18898224 208:0.18898224 218:0.18898224 231:0.18898224 266:0.18898224 287:0.18898224 329:0.18898224 347:0.18898224 354:0.18898224 362:0.18898224 374:0.18898224 375:0.18898224 419:0.18898224 664:0.18898224 729:0.18898224 730:0.18898224 737:0.18898224 740:0.18898224 749:0.18898224 753:0.18898224 828:0.18898224 2002:0.18898224 2027:0.18898224 
-0.6419118483759602 26:0.26726124 264:0.26726124 319:0.26726124 330:0.26726124 420:0.80178373 830:0.26726124 
-0.5097518702491867 12:0.57735027 15:0.57735027 118:0.57735027 
-0.7032274172597732 138:0.4472136 198:0.4472136 207:0.4472136 372:0.4472136 741:0.4472136 
-0.707106781187 28:0.57735027 86:0.57735027 104:0.57735027 
-0.6879004831037168 71:0.57735027 258:0.57735027 2023:0.57735027 
-0.7026589233139911 67:0.33333333 82:0.33333333 174:0.33333333 346:0.66666667 734:0.33333333 1188:0.33333333 
-0.696736363201266 24:0.31622777 28:0.31622777 132:0.31622777 311:0.31622777 383:0.31622777 657:0.31622777 665:0.31622777 756:0.31622777 2030:0.31622777 2057:0.31622777 
-0.6918180103586117 196:0.4472136 215:0.4472136 251:0.4472136 303:0.4472136 318:0.4472136 
-0.7049269261938957 36:0.16439899 37:0.16439899 63:0.16439899 69:0.16439899 100:0.16439899 139:0.16439899 160:0.16439899 232:0.16439899 236:0.16439899 237:0.16439899 239:0.16439899 254:0.16439899 279:0.16439899 286:0.16439899 338:0.16439899 344:0.16439899 345:0.16439899 353:0.16439899 355:0.16439899 382:0.16439899 418:0.16439899 699:0.16439899 738:0.16439899 745:0.16439899 746:0.16439899 846:0.32879797 1187:0.32879797 1189:0.16439899 2020:0.16439899 2029:0.16439899 2051:0.16439899 
-0.707106781187 1:0.33333333 62:0.33333333 64:0.33333333 96:0.33333333 107:0.33333333 281:0.33333333 659:0.33333333 736:0.33333333 753:0.33333333 
-0.707106781187 2:0.35355339 11:0.35355339 58:0.35355339 942:0.35355339 1185:0.35355339 2003:0.35355339 2019:0.35355339 2098:0.35355339 
-0.707106781187 1:0.25819889 891:0.25819889 940:0.25819889 1051:0.25819889 1072:0.25819889 2019:0.77459667 2088:0.25819889 
-0.2854420613234144 1:0.57735027 1065:0.57735027 1139:0.57735027 
-0.707106781187 1:0.13867505 101:0.13867505 130:0.13867505 706:0.13867505 1021:0.13867505 1086:0.13867505 1097:0.13867505 1184:0.83205029 2120:0.41602515 
-0.707106781187 28:0.1796053 92:0.1796053 115:0.1796053 151:0.1796053 665:0.3592106 720:0.1796053 724:0.1796053 864:0.1796053 907:0.1796053 908:0.1796053 913:0.1796053 919:0.1796053 930:0.1796053 976:0.1796053 990:0.1796053 1008:0.1796053 1027:0.1796053 1064:0.1796053 1078:0.1796053 1081:0.1796053 1110:0.1796053 1119:0.1796053 1996:0.1796053 2004:0.1796053 2007:0.1796053 2027:0.1796053 2037:0.1796053 2075:0.1796053 
-0.707106781187 13:0.20851441 51:0.20851441 420:0.20851441 716:0.20851441 718:0.20851441 873:0.20851441 938:0.20851441 939:0.20851441 983:0.41702883 2004:0.41702883 2018:0.20851441 2019:0.20851441 2033:0.41702883 2076:0.20851441 
-0.707106781187 1:0.20851441 13:0.20851441 718:0.20851441 844:0.20851441 850:0.20851441 872:0.20851441 936:0.20851441 996:0.20851441 1089:0.20851441 1132:0.20851441 1142:0.20851441 1152:0.20851441 2004:0.62554324 2009:0.20851441 2011:0.20851441 
-0.707106781187 13:0.37796447 705:0.37796447 992:0.37796447 1122:0.37796447 1995:0.37796447 2051:0.37796447 2070:0.37796447 
-0.6124533859322831 1:0.4 15:0.2 87:0.2 704:0.2 726:0.2 834:0.4 848:0.2 884:0.2 997:0.4 1013:0.2 1050:0.2 1076:0.2 1088:0.2 1155:0.2 2009:0.2 2091:0.2 
-0.3277707653546685 1:0.57735027 857:0.57735027 2034:0.57735027 
-0.5767079255437515 1:0.37796447 11:0.37796447 65:0.37796447 1063:0.37796447 1158:0.37796447 2099:0.37796447 2101:0.37796447 
-0.645801705969896 1:0.4472136 650:0.4472136 895:0.4472136 979:0.4472136 1164:0.4472136 
-0.707106781187 10:0.38490018 132:0.19245009 836:0.19245009 911:0.19245009 984:0.19245009 1028:0.19245009 1073:0.19245009 1093:0.38490018 1149:0.19245009 1998:0.19245009 2015:0.19245009 2067:0.19245009 2078:0.57735027 
-0.707106781187 1:0.30151134 8:0.30151134 61:0.30151134 651:0.30151134 743:0.60302269 941:0.30151134 1079:0.30151134 1171:0.30151134 
-0.02597666499833714 1:0.62554324 139:0.20851441 839:0.20851441 845:0.20851441 848:0.20851441 868:0.20851441 924:0.20851441 999:0.20851441 1018:0.20851441 1042:0.20851441 1087:0.20851441 2018:0.20851441 2026:0.20851441 2069:0.20851441 2087:0.20851441 
-0.707106781187 425:0.63245553 892:0.31622777 1135:0.31622777 1157:0.31622777 1999:0.31622777 2018:0.31622777 2030:0.31622777 
-0.707106781187 1:0.19245009 52:0.38490018 53:0.38490018 54:0.38490018 61:0.19245009 708:0.19245009 927:0.19245009 957:0.19245009 980:0.19245009 988:0.38490018 1128:0.19245009 2030:0.19245009 2068:0.19245009 2094:0.19245009 2105:0.19245009 
-0.1605547651756137 1:0.57735027 96:0.57735027 1023:0.57735027 
-0.707106781187 1:0.30151134 893:0.30151134 904:0.30151134 2081:0.60302269 2111:0.60302269 
-0.4962695423354687 1:0.35355339 11:0.35355339 656:0.35355339 706:0.35355339 949:0.35355339 981:0.35355339 1011:0.35355339 1100:0.35355339 
-0.3301886609386832 1:0.40824829 13:0.40824829 61:0.40824829 389:0.40824829 1048:0.40824829 1129:0.40824829 
-0.707106781187 869:0.37796447 879:0.37796447 926:0.37796447 955:0.37796447 1069:0.37796447 1166:0.37796447 2069:0.37796447 
-0.707106781187 1:0.26726124 708:0.26726124 838:0.26726124 900:0.26726124 903:0.26726124 994:0.26726124 1010:0.26726124 1012:0.26726124 1109:0.26726124 1180:0.26726124 1186:0.26726124 2016:0.26726124 2100:0.26726124 2118:0.26726124 
-0.707106781187 1:0.2773501 64:0.2773501 111:0.2773501 121:0.2773501 658:0.2773501 660:0.2773501 843:0.2773501 853:0.2773501 933:0.2773501 969:0.2773501 1163:0.2773501 2073:0.2773501 2109:0.2773501 
-0.707106781187 1:0.21821789 13:0.21821789 29:0.21821789 61:0.21821789 62:0.21821789 659:0.21821789 717:0.21821789 728:0.21821789 828:0.21821789 929:0.21821789 950:0.21821789 962:0.21821789 974:0.21821789 985:0.21821789 987:0.21821789 1006:0.21821789 1016:0.21821789 1055:0.21821789 1138:0.21821789 1177:0.21821789 2038:0.21821789 
-0.435421159112452 1:0.40824829 15:0.40824829 700:0.40824829 861:0.40824829 1082:0.40824829 2000:0.40824829 
-0.707106781187 1:0.35355339 61:0.35355339 716:0.35355339 934:0.35355339 959:0.35355339 1127:0.35355339 2001:0.35355339 2064:0.35355339 
-0.707106781187 1:0.25 107:0.25 712:0.25 871:0.25 890:0.25 947:0.25 1043:0.25 1114:0.25 1173:0.25 1174:0.25 1185:0.25 2003:0.25 2035:0.25 2072:0.25 2084:0.25 2092:0.25 
-0.707106781187 1:0.30151134 714:0.30151134 858:0.30151134 885:0.30151134 888:0.30151134 966:0.30151134 977:0.30151134 986:0.30151134 1103:0.30151134 2027:0.30151134 2036:0.30151134 
-0.707106781187 133:0.70710678 831:0.70710678 
-0.6738851692237818 12:0.57735027 15:0.57735027 118:0.57735027 
-0.707106781187 11:0.098058068 17:0.19611614 24:0.098058068 27:0.098058068 60:0.098058068 81:0.098058068 83:0.098058068 84:0.098058068 85:0.098058068 88:0.098058068 89:0.098058068 91:0.19611614 93:0.098058068 97:0.098058068 98:0.098058068 103:0.19611614 105:0.098058068 106:0.098058068 108:0.098058068 109:0.19611614 110:0.098058068 114:0.098058068 116:0.098058068 117:0.098058068 119:0.098058068 120:0.098058068 122:0.098058068 123:0.098058068 124:0.098058068 126:0.098058068 128:0.39223227 134:0.39223227 135:0.098058068 136:0.098058068 150:0.2941742 655:0.098058068 661:0.098058068 662:0.098058068 666:0.19611614 667:0.098058068 829:0.098058068 1993:0.19611614 2001:0.098058068 2024:0.098058068 2025:0.098058068 2048:0.098058068 2049:0.098058068 2050:0.098058068 
-0.707106781187 28:0.57735027 86:0.57735027 104:0.57735027 
-0.6430642740970143 1:0.26726124 13:0.26726124 102:0.26726124 113:0.26726124 125:0.26726124 129:0.26726124 131:0.26726124 668:0.26726124 700:0.26726124 848:0.53452248 2120:0.26726124 
-0.07039103874777229 2:0.31622777 3:0.31622777 5:0.31622777 6:0.31622777 7:0.31622777 26:0.31622777 58:0.31622777 652:0.31622777 653:0.31622777 866:0.31622777 
-0.3318431198849432 2:0.31622777 3:0.31622777 5:0.31622777 6:0.31622777 7:0.31622777 13:0.31622777 422:0.31622777 1075:0.31622777 2013:0.31622777 2108:0.31622777 
-0.5672326153121691 2:0.31622777 3:0.31622777 5:0.31622777 6:0.31622777 7:0.31622777 13:0.15811388 94:0.15811388 137:0.15811388 424:0.31622777 752:0.15811388 862:0.15811388 968:0.15811388 1020:0.15811388 1047:0.15811388 1108:0.15811388 1115:0.15811388 2040:0.15811388 2041:0.15811388 2106:0.31622777 
-0.3150678022169242 2:0.30151134 3:0.30151134 5:0.30151134 6:0.30151134 7:0.30151134 51:0.30151134 703:0.30151134 715:0.30151134 719:0.30151134 722:0.30151134 735:0.30151134 
-0.707106781187 2:0.18569534 3:0.18569534 5:0.18569534 6:0.18569534 7:0.18569534 99:0.18569534 152:0.18569534 652:0.18569534 663:0.18569534 699:0.37139068 704:0.18569534 707:0.18569534 840:0.18569534 958:0.18569534 967:0.18569534 1004:0.18569534 1025:0.18569534 1057:0.18569534 1059:0.18569534 1077:0.18569534 1123:0.18569534 1137:0.18569534 1150:0.18569534 2015:0.18569534 2023:0.18569534 2095:0.18569534 
-0.707106781187 2:0.31622777 3:0.31622777 5:0.31622777 6:0.31622777 7:0.31622777 18:0.31622777 735:0.31622777 1003:0.31622777 1067:0.31622777 2047:0.31622777 
-0.707106781187 852:0.28867513 856:0.28867513 1031:0.28867513 1120:0.28867513 1151:0.28867513 1994:0.28867513 2065:0.57735027 2071:0.28867513 2077:0.28867513 
-0.3291841625177913 2:0.35355339 3:0.35355339 5:0.35355339 6:0.35355339 7:0.35355339 422:0.35355339 651:0.35355339 2082:0.35355339 
-0.707106781187 2:0.25819889 3:0.25819889 5:0.25819889 6:0.25819889 710:0.25819889 725:0.25819889 727:0.25819889 833:0.25819889 847:0.25819889 860:0.25819889 883:0.25819889 915:0.25819889 1066:0.25819889 2104:0.25819889 2119:0.25819889 
-0.5925855483427953 2:0.3592106 3:0.1796053 5:0.3592106 6:0.3592106 7:0.1796053 62:0.1796053 127:0.1796053 663:0.1796053 699:0.1796053 709:0.1796053 710:0.1796053 721:0.1796053 725:0.1796053 851:0.1796053 910:0.1796053 920:0.1796053 1167:0.1796053 1182:0.1796053 1186:0.1796053 2014:0.1796053 2031:0.1796053 2116:0.1796053 
-0.5120660649968384 2:0.33333333 3:0.33333333 5:0.33333333 6:0.33333333 7:0.33333333 906:0.33333333 922:0.33333333 965:0.33333333 982:0.33333333 
-0.02956967612116707 2:0.45883147 3:0.22941573 5:0.45883147 6:0.45883147 7:0.22941573 654:0.22941573 723:0.22941573 1014:0.22941573 1054:0.22941573 2107:0.22941573 
-0.707106781187 2:0.24253563 3:0.24253563 5:0.24253563 6:0.24253563 7:0.24253563 855:0.24253563 878:0.24253563 937:0.24253563 956:0.24253563 964:0.24253563 1041:0.24253563 1156:0.48507125 2047:0.24253563 2085:0.24253563 
-0.707106781187 2:0.20412415 3:0.20412415 5:0.20412415 6:0.20412415 7:0.20412415 389:0.20412415 654:0.61237244 663:0.20412415 699:0.20412415 728:0.20412415 859:0.20412415 932:0.20412415 1045:0.20412415 1105:0.20412415 1175:0.20412415 2064:0.20412415 
-0.707106781187 24:0.19245009 657:0.19245009 743:0.19245009 835:0.19245009 841:0.19245009 943:0.19245009 946:0.19245009 953:0.19245009 1000:0.19245009 1005:0.19245009 1009:0.19245009 1022:0.19245009 1029:0.19245009 1032:0.19245009 1034:0.19245009 1036:0.19245009 1085:0.19245009 1098:0.19245009 1117:0.19245009 1124:0.19245009 1130:0.19245009 1145:0.19245009 1160:0.19245009 2065:0.19245009 2067:0.19245009 2090:0.19245009 2097:0.19245009 
-0.707106781187 16:0.22941573 28:0.22941573 30:0.22941573 63:0.22941573 830:0.22941573 837:0.22941573 847:0.22941573 867:0.22941573 882:0.22941573 899:0.22941573 951:0.22941573 1046:0.22941573 1068:0.22941573 1107:0.22941573 1143:0.22941573 1146:0.22941573 2005:0.22941573 2110:0.22941573 2114:0.22941573 
-0.707106781187 63:0.3380617 389:0.16903085 701:0.16903085 723:0.16903085 897:0.16903085 928:0.16903085 945:0.16903085 952:0.16903085 963:0.16903085 995:0.16903085 1017:0.16903085 1071:0.16903085 1096:0.16903085 1112:0.16903085 1113:0.3380617 1116:0.16903085 1136:0.16903085 1141:0.16903085 1161:0.16903085 1165:0.16903085 1169:0.16903085 2004:0.3380617 2065:0.16903085 2068:0.16903085 2079:0.16903085 2117:0.16903085 
-0.707106781187 420:0.81649658 944:0.40824829 1125:0.40824829 
-0.707106781187 664:0.18257419 702:0.18257419 705:0.18257419 712:0.18257419 724:0.18257419 743:0.18257419 847:0.18257419 849:0.18257419 863:0.18257419 886:0.18257419 917:0.18257419 971:0.18257419 1019:0.36514837 1053:0.18257419 1070:0.18257419 1118:0.18257419 1134:0.18257419 2014:0.18257419 2029:0.54772256 
-0.707106781187 11:0.4472136 870:0.4472136 923:0.4472136 1002:0.4472136 1168:0.4472136 
-0.02404029867088316 2:0.37796447 3:0.37796447 4:0.18898224 5:0.37796447 6:0.37796447 7:0.37796447 9:0.18898224 13:0.18898224 17:0.18898224 23:0.18898224 421:0.18898224 720:0.18898224 876:0.18898224 
-0.707106781187 58:0.70710678 2011:0.70710678 
-0.707106781187 60:0.1767767 721:0.1767767 842:0.35355339 877:0.1767767 1007:0.35355339 1024:0.1767767 1090:0.35355339 1102:0.1767767 1106:0.1767767 1144:0.1767767 2093:0.53033009 2103:0.35355339 
-0.707106781187 670:0.058123819 832:0.46499055 874:0.058123819 1030:0.46499055 1084:0.46499055 1162:0.058123819 1170:0.058123819 1179:0.46499055 2112:0.34874292 
-0.3208097003923103 2:0.33333333 3:0.33333333 5:0.33333333 6:0.33333333 7:0.33333333 651:0.33333333 653:0.33333333 752:0.33333333 2028:0.33333333 
-0.1685996601505521 2:0.37796447 3:0.37796447 5:0.37796447 6:0.37796447 7:0.37796447 726:0.37796447 2032:0.37796447 
-0.2663703307626494 2:0.37796447 3:0.37796447 5:0.37796447 6:0.37796447 7:0.37796447 905:0.37796447 2115:0.37796447 
-0.595572885994887 2:0.31622777 3:0.31622777 5:0.31622777 6:0.31622777 7:0.31622777 887:0.31622777 960:0.31622777 1015:0.31622777 1039:0.31622777 1178:0.31622777 
-0.2084510360465534 2:0.37796447 3:0.37796447 5:0.37796447 6:0.37796447 7:0.37796447 713:0.37796447 1148:0.37796447 
-0.02975216646927498 2:0.35355339 3:0.35355339 5:0.35355339 6:0.35355339 7:0.35355339 138:0.35355339 998:0.35355339 1038:0.35355339 
-0.707106781187 59:0.26726124 727:0.26726124 865:0.26726124 875:0.26726124 880:0.26726124 948:0.26726124 978:0.26726124 1095:0.26726124 1133:0.26726124 1172:0.26726124 1176:0.26726124 2016:0.26726124 2030:0.26726124 2074:0.26726124 
-0.07625671485150051 2:0.38490018 3:0.38490018 5:0.38490018 6:0.38490018 7:0.38490018 30:0.19245009 652:0.19245009 707:0.19245009 752:0.19245009 921:0.19245009 1052:0.19245009 2042:0.19245009 
-0.707106781187 4:0.14285714 9:0.14285714 82:0.28571429 90:0.28571429 95:0.14285714 701:0.14285714 709:0.14285714 717:0.14285714 894:0.14285714 896:0.14285714 918:0.14285714 931:0.14285714 961:0.14285714 975:0.14285714 1001:0.14285714 1035:0.14285714 1083:0.14285714 1091:0.14285714 1101:0.14285714 1111:0.14285714 1121:0.14285714 1140:0.14285714 1147:0.14285714 1153:0.14285714 1154:0.28571429 1997:0.14285714 2003:0.28571429 2017:0.14285714 2039:0.14285714 2044:0.14285714 2064:0.14285714 2080:0.14285714 2096:0.28571429 2102:0.14285714 
-0.1063299562887259 2:0.3939193 3:0.3939193 5:0.3939193 6:0.3939193 7:0.26261287 112:0.13130643 663:0.13130643 699:0.13130643 854:0.13130643 993:0.13130643 1033:0.13130643 1040:0.13130643 1058:0.13130643 1062:0.13130643 1104:0.26261287 2030:0.26261287 2066:0.13130643 
-0.3212567548002109 2:0.30151134 3:0.30151134 5:0.30151134 6:0.30151134 7:0.30151134 13:0.30151134 17:0.30151134 23:0.30151134 989:0.30151134 2030:0.30151134 2066:0.30151134 
-0.4315557980744486 2:0.2773501 3:0.2773501 5:0.2773501 6:0.2773501 7:0.2773501 13:0.2773501 17:0.2773501 23:0.2773501 2012:0.5547002 2059:0.2773501 
-0.5253362905950854 2:0.33333333 5:0.33333333 6:0.33333333 7:0.33333333 13:0.33333333 17:0.33333333 23:0.33333333 2059:0.33333333 2089:0.33333333 
-0.4903963990383059 2:0.3592106 3:0.3592106 5:0.3592106 6:0.3592106 7:0.3592106 653:0.3592106 711:0.1796053 2010:0.1796053 2023:0.1796053 2028:0.3592106 
-0.707106781187 2:0.30151134 13:0.30151134 30:0.30151134 898:0.30151134 1026:0.30151134 1074:0.30151134 2029:0.60302269 2086:0.30151134 
